network unknown {
}
variable EUI {
    type discrete [ 5 ] { 1, 2, 3, 4, 5 };
    property weight = None ;
}
variable area {
    type discrete [ 3 ] { 1, 2, 3 };
    property weight = None ;
}
variable event {
    type discrete [ 2 ] { no, yes };
    property weight = None ;
}
variable floors {
    type discrete [ 3 ] { 1, 2, 3 };
    property weight = None ;
}
variable students {
    type discrete [ 3 ] { 1, 2, 3 };
    property weight = None ;
}
probability ( EUI ) {
    table 0.236, 0.487675, 0.2327, 0.0398, 0.003825 ;
}
probability ( area | EUI ) {
    ( 1 ) 0.6, 0.2989406779661017, 0.10105932203389831;
    ( 2 ) 0.4970010765366279, 0.3049161839339724, 0.1980827395293997;
    ( 3 ) 0.29061022776106576, 0.4039535883111302, 0.30543618392780403;
    ( 4 ) 0.25753768844221103, 0.30402010050251255, 0.43844221105527637;
    ( 5 ) 0.17647058823529413, 0.24183006535947713, 0.5816993464052288;

}
probability ( event | EUI ) {
    ( 1 ) 0.8003177966101694, 0.1996822033898305;
    ( 2 ) 0.7027220997590609, 0.29727790024093914;
    ( 3 ) 0.5558659217877095, 0.4441340782122905;
    ( 4 ) 0.3907035175879397, 0.6092964824120602;
    ( 5 ) 0.3333333333333333, 0.6666666666666666;

}
probability ( floors | EUI ) {
    ( 1 ) 0.7015889830508475, 0.2468220338983051, 0.051588983050847456;
    ( 2 ) 0.6545855333982673, 0.2976880094325114, 0.047726457169221304;
    ( 3 ) 0.4460678985818651, 0.45724108293940696, 0.09669101847872798;
    ( 4 ) 0.25690954773869346, 0.4824120603015075, 0.26067839195979897;
    ( 5 ) 0.10457516339869281, 0.4117647058823529, 0.48366013071895425;

}
probability ( students | EUI ) {
    ( 1 ) 0.39841101694915254, 0.39120762711864404, 0.2103813559322034;
    ( 2 ) 0.29179268980366024, 0.3077356846260317, 0.4004716255703081;
    ( 3 ) 0.2431241942415127, 0.30500644606789856, 0.4518693596905887;
    ( 4 ) 0.15829145728643215, 0.39195979899497485, 0.44974874371859297;
    ( 5 ) 0.1111111111111111, 0.3202614379084967, 0.5686274509803921;

}
